{
  "weights": [
    [
      [
        0.01257302210933933,
        -0.013210486329130189,
        0.06404226504432821,
        0.010490011715303971,
        -0.0535669373161111,
        0.03615950549094848,
        0.13040000451301373,
        0.09470809631292422
      ],
      [
        -0.07037352358069926,
        -0.12654214710460526,
        -0.06232744625373522,
        0.00413259793472436,
        -0.23250307746388343,
        -0.021879166393254573,
        -0.12459109472530652,
        -0.07322673547034517
      ],
      [
        -0.054425898285730995,
        -0.031630015636915455,
        0.04116305363741329,
        0.10425133694426776,
        -0.012853466294403426,
        0.1366463470549686,
        -0.06651946734866136,
        0.035151007009301974
      ],
      [
        0.09034701816518087,
        0.009401229776087457,
        -0.07434992493538084,
        -0.09217253762584195,
        -0.045772582566733916,
        0.022019512347004944,
        -0.10096181835387359,
        -0.020917557487171307
      ],
      [
        -0.015922500991447774,
        0.05408455846858077,
        0.02146591225063409,
        0.03553727090399214,
        -0.06538286094183395,
        -0.012961363369276946,
        0.07839754700613295,
        0.14934311452207608
      ],
      [
        -0.12590655321041203,
        0.15139237747390627,
        0.13458754237823045,
        0.07813114007004275,
        0.026445563032930355,
        -0.03139228145364278,
        0.14580206835369589,
        0.19602583164499648
      ],
      [
        0.18016348698661253,
        0.131510376473437,
        0.0357380410658956,
        -0.12083186322821715,
        -0.0004454133120083229,
        0.06564749350763359,
        -0.12883614637495544,
        0.039512206018200824
      ],
      [
        0.04298636948222301,
        0.06960427239628685,
        -0.11841179667571891,
        -0.0661702572039035,
        -0.043643524714322125,
        -0.11698019077728641,
        0.1739367877130134,
        -0.04959107284421519
      ],
      [
        0.03289696294602021,
        -0.025857254547392402,
        0.15834728788021224,
        0.13203609870818392,
        0.06333526228249152,
        -0.22035098806466508,
        0.005202897425988651,
        0.06836861907765344
      ]
    ],
    [
      [
        0.10039615758421697,
        -0.061790704470760086,
        0.18220113633283233,
        -0.13204309700132935
      ],
      [
        -0.0661528021815219,
        0.09350499881140222,
        0.004905461382531166,
        0.20023925836452552
      ],
      [
        0.01885191925124656,
        -0.06331940901922267,
        -0.03775635052328083,
        -0.10911461176191956
      ],
      [
        -0.1277680166386608,
        0.06304114907682319,
        0.05811658124128058,
        0.1294558819441117
      ],
      [
        -0.07546057912599312,
        0.16891074524436733,
        -0.028738770780866632,
        0.15744082788445868
      ],
      [
        -0.04327858471825968,
        -0.07354832923422751,
        0.024978537155866686,
        0.10314530848694724
      ],
      [
        0.016100957671534466,
        -0.05855288241233367,
        -0.1341219714076669,
        -0.1401520214917428
      ],
      [
        0.05026828498748657,
        0.0989713033285805,
        -0.016429459262529072,
        -0.10743648582284347
      ]
    ]
  ],
  "biases": [
    [
      0.0,
      0.0,
      0.0,
      0.0,
      0.0,
      0.0,
      0.0,
      0.0
    ],
    [
      0.0,
      0.0,
      0.0,
      0.0
    ]
  ]
}
