{
  "weights": [
    [
      [
        -0.2099529355764389,
        -0.21547658741474152,
        -0.0936974287033081,
        -0.3092007339000702,
        0.3035038113594055,
        0.2896272838115692,
        -0.2796567678451538,
        -0.3019741475582123,
        -0.4293629229068756,
        -0.2657492458820343,
        -0.6057432889938354,
        -0.2560727894306183,
        0.23068466782569885,
        0.054901085793972015,
        0.1134609803557396,
        0.02248268760740757
      ],
      [
        0.34003451466560364,
        -0.08440752327442169,
        -0.20510271191596985,
        0.4360453188419342,
        0.07177361845970154,
        -0.22441671788692474,
        -0.029048658907413483,
        -0.0435444638133049,
        0.0440489798784256,
        -0.19741573929786682,
        0.1609433889389038,
        0.22432470321655273,
        -0.16142071783542633,
        0.028119802474975586,
        -0.15095263719558716,
        0.41817012429237366
      ],
      [
        -0.17298999428749084,
        0.045415617525577545,
        -0.16480670869350433,
        -0.06634963303804398,
        -0.01290250662714243,
        0.08375740051269531,
        -0.08513917028903961,
        -0.09018389880657196,
        -0.22978238761425018,
        0.06466294080018997,
        0.5067092180252075,
        0.33448073267936707,
        -0.12920857965946198,
        -0.2848420739173889,
        -0.3010311722755432,
        -0.06439341604709625
      ],
      [
        -0.011277535930275917,
        -0.11814723908901215,
        -0.24407652020454407,
        0.2379525601863861,
        0.17052271962165833,
        -0.14008976519107819,
        -0.1585066020488739,
        -0.0913674384355545,
        -0.7116254568099976,
        -0.0013276748359203339,
        -0.2599765658378601,
        -0.22442615032196045,
        -0.1280524879693985,
        0.1531515121459961,
        -0.22785618901252747,
        -0.2526816129684448
      ],
      [
        0.10869193822145462,
        0.20297229290008545,
        -0.19308684766292572,
        0.04268538951873779,
        -0.12598782777786255,
        -0.03109663724899292,
        -0.06379890441894531,
        0.11075989902019501,
        0.2298986166715622,
        0.13766121864318848,
        0.047568563371896744,
        -0.754455029964447,
        -0.032169558107852936,
        -0.016016218811273575,
        0.07039373368024826,
        -0.08538844436407089
      ],
      [
        0.011072995141148567,
        0.06004883721470833,
        0.04714208096265793,
        -0.09333576261997223,
        0.21769839525222778,
        -0.2967631220817566,
        0.23124246299266815,
        0.03536249324679375,
        -0.24682332575321198,
        -0.05767778307199478,
        -0.2062554508447647,
        0.24864596128463745,
        0.07549736648797989,
        -0.11590754240751266,
        -0.2588166892528534,
        0.20037679374217987
      ],
      [
        0.15730911493301392,
        -0.022767269983887672,
        0.09926909953355789,
        -0.12018502503633499,
        -0.09847087413072586,
        0.006255887448787689,
        0.01583472266793251,
        -0.3019545078277588,
        0.12883810698986053,
        -0.1472773253917694,
        0.12319967150688171,
        -0.09710370004177094,
        0.14456968009471893,
        -0.5225561857223511,
        0.18715767562389374,
        -0.4535358250141144
      ],
      [
        -0.15212535858154297,
        0.030414123088121414,
        0.35256657004356384,
        -0.029855504631996155,
        0.013241246342658997,
        -0.28340691328048706,
        -0.01532609760761261,
        -0.0667109489440918,
        0.3561647832393646,
        0.23841744661331177,
        -0.2613910138607025,
        0.5500686764717102,
        -0.03800889104604721,
        -0.010261490941047668,
        0.33238720893859863,
        0.07316701859235764
      ],
      [
        -0.21240924298763275,
        -0.09321436285972595,
        0.245341956615448,
        0.22740811109542847,
        -0.24925677478313446,
        0.28276267647743225,
        0.26485922932624817,
        -0.055129434913396835,
        -0.16373197734355927,
        -0.19131657481193542,
        0.1177983358502388,
        -0.06588218361139297,
        -0.10889923572540283,
        0.0943477526307106,
        0.05721157416701317,
        -0.11831563711166382
      ]
    ],
    [
      [
        -0.3522723317146301,
        0.13567157089710236,
        0.342807412147522,
        -0.06555125117301941
      ],
      [
        0.08516689389944077,
        -0.19033533334732056,
        0.25412845611572266,
        0.013236215338110924
      ],
      [
        0.4174696207046509,
        -0.17255213856697083,
        0.11109254509210587,
        -0.09356449544429779
      ],
      [
        -0.09142693877220154,
        0.11670682579278946,
        -0.3118250072002411,
        0.538214921951294
      ],
      [
        -0.39549538493156433,
        0.10841938853263855,
        -0.18109191954135895,
        0.3087940216064453
      ],
      [
        -0.13313546776771545,
        -0.023565903306007385,
        -0.1280217319726944,
        0.052600160241127014
      ],
      [
        -0.006515011191368103,
        -0.6618714332580566,
        -0.12392337620258331,
        -0.008655190467834473
      ],
      [
        -0.059039223939180374,
        0.12401065230369568,
        0.17674332857131958,
        0.1498386263847351
      ],
      [
        -0.3413090705871582,
        0.24733303487300873,
        0.12906606495380402,
        0.049012690782547
      ],
      [
        0.3540378212928772,
        -0.1261775642633438,
        -0.2920491695404053,
        -0.031174687668681145
      ],
      [
        0.2293635755777359,
        -0.16887232661247253,
        0.3406602442264557,
        -0.17276133596897125
      ],
      [
        0.14810429513454437,
        0.280531644821167,
        -0.08059036731719971,
        0.2876909375190735
      ],
      [
        -0.26023852825164795,
        0.3607305884361267,
        -0.004264559596776962,
        -0.09829775989055634
      ],
      [
        0.16089971363544464,
        0.19443601369857788,
        0.11932380497455597,
        0.44573795795440674
      ],
      [
        0.30395907163619995,
        0.25203365087509155,
        -0.20021569728851318,
        -0.1378553807735443
      ],
      [
        0.04815492033958435,
        0.05716857314109802,
        0.08571229130029678,
        0.27440381050109863
      ]
    ]
  ],
  "biases": [
    [
      0.19694748520851135,
      0.2282147854566574,
      -0.17750301957130432,
      -0.18913178145885468,
      0.14557328820228577,
      0.19860395789146423,
      0.05445477366447449,
      0.12400402128696442,
      -0.27448299527168274,
      -0.32011884450912476,
      -0.08292225748300552,
      0.15878118574619293,
      -0.15953615307807922,
      -0.1627657115459442,
      -0.15682247281074524,
      -0.09926550835371017
    ],
    [
      0.18826058506965637,
      0.051296308636665344,
      -0.1436014026403427,
      -0.21391332149505615
    ]
  ],
  "history_length": 1,
  "base_obs_dim": 9
}
