{
  "weights": [
    [
      [
        0.324640691280365,
        0.06396614015102386,
        -0.12589871883392334,
        -0.2770596146583557,
        -0.23153440654277802,
        -0.204909086227417,
        -0.43119680881500244,
        0.2347876876592636,
        -0.00595501996576786,
        0.10733076930046082,
        -0.28377485275268555,
        -0.09702154248952866,
        -0.048019904643297195,
        0.015117956325411797,
        -0.04125719144940376,
        -0.24898487329483032
      ],
      [
        0.21836984157562256,
        0.14205680787563324,
        0.014972004108130932,
        0.20644676685333252,
        0.24162068963050842,
        0.2787812650203705,
        0.03260507807135582,
        -0.06295900791883469,
        -0.09596239030361176,
        0.1782466024160385,
        -0.1402929723262787,
        -0.18270522356033325,
        0.11087938398122787,
        0.22414496541023254,
        0.12730993330478668,
        -0.1698436141014099
      ],
      [
        0.06014744192361832,
        0.1830594390630722,
        -0.12585566937923431,
        -0.05362766981124878,
        0.003374312072992325,
        0.5222944021224976,
        0.1801617294549942,
        -0.26811397075653076,
        -0.3041503131389618,
        0.1930854320526123,
        -0.1434522122144699,
        0.10651449859142303,
        0.053139086812734604,
        0.22214026749134064,
        -0.3453325033187866,
        -0.10957260429859161
      ],
      [
        0.05659899488091469,
        0.046893905848264694,
        -0.139677494764328,
        -0.10543178766965866,
        -0.11716856062412262,
        0.050789378583431244,
        0.14011284708976746,
        -0.05509369820356369,
        -0.030610810965299606,
        -0.4092215895652771,
        -0.2122206836938858,
        0.5161248445510864,
        -0.3429415225982666,
        0.27287837862968445,
        -0.05957835912704468,
        -0.3926403522491455
      ],
      [
        0.28752925992012024,
        0.25681376457214355,
        -0.1006496474146843,
        0.1734554022550583,
        -0.07117890566587448,
        0.06079819053411484,
        0.033253900706768036,
        -0.04620211198925972,
        0.10487452149391174,
        0.07714980095624924,
        -0.1398598551750183,
        0.05919863283634186,
        -0.1041175052523613,
        0.026763731613755226,
        -0.09937392175197601,
        0.019458135589957237
      ],
      [
        0.34037673473358154,
        -0.13077828288078308,
        -0.29262539744377136,
        0.31882908940315247,
        0.058488879352808,
        -0.07129126787185669,
        -0.049929987639188766,
        -0.17663688957691193,
        0.1875687688589096,
        0.14266780018806458,
        0.1257144659757614,
        0.04404068738222122,
        -0.41000834107398987,
        -0.23739567399024963,
        0.05688006058335304,
        -0.5309897661209106
      ],
      [
        -0.01585112325847149,
        -0.20506247878074646,
        0.1244833916425705,
        -0.03932027518749237,
        0.15434634685516357,
        0.06753093749284744,
        0.022749749943614006,
        -0.19466790556907654,
        0.12554173171520233,
        0.42302408814430237,
        -0.34208887815475464,
        -0.20474687218666077,
        0.33281853795051575,
        0.10235824435949326,
        0.027195923030376434,
        0.15639568865299225
      ],
      [
        0.06649842113256454,
        -0.1305243819952011,
        -0.2157735824584961,
        0.17105504870414734,
        0.06866094470024109,
        0.21553649008274078,
        0.21190007030963898,
        -0.12279906123876572,
        0.30482321977615356,
        -0.1846325844526291,
        -0.0906590148806572,
        -0.15655642747879028,
        -0.28023603558540344,
        0.1245187297463417,
        -0.42921847105026245,
        -0.2229551523923874
      ],
      [
        0.188554584980011,
        0.17304262518882751,
        -0.12428484112024307,
        -0.36916178464889526,
        -0.020850729197263718,
        -0.31957316398620605,
        -0.18360455334186554,
        -0.07755526155233383,
        -0.03162604570388794,
        -0.19418036937713623,
        -0.029068980365991592,
        0.2764080762863159,
        0.12542523443698883,
        0.2758452594280243,
        0.17920587956905365,
        0.04639633372426033
      ]
    ],
    [
      [
        0.20926667749881744,
        0.161147803068161,
        0.04012560844421387,
        0.2182214856147766
      ],
      [
        -0.1533094346523285,
        0.046551235020160675,
        0.35590240359306335,
        -0.11551758646965027
      ],
      [
        0.041023481637239456,
        0.3052242696285248,
        -0.16849550604820251,
        0.012865029275417328
      ],
      [
        -0.06296007335186005,
        -0.22338861227035522,
        0.08085222542285919,
        -0.16882580518722534
      ],
      [
        0.3311508893966675,
        0.00413223821669817,
        -0.042029909789562225,
        0.008174359798431396
      ],
      [
        0.020557476207613945,
        -0.03984484449028969,
        0.03263142704963684,
        -0.11496230959892273
      ],
      [
        -0.09496092796325684,
        0.1054086983203888,
        -0.35777729749679565,
        -0.1598966419696808
      ],
      [
        0.0017110409680753946,
        0.06847608834505081,
        -0.0781082957983017,
        0.027244808152318
      ],
      [
        0.07812467217445374,
        -0.38025954365730286,
        0.18809416890144348,
        0.053599197417497635
      ],
      [
        -0.1914713978767395,
        0.22790710628032684,
        0.13549889624118805,
        -0.12510089576244354
      ],
      [
        0.22131334245204926,
        0.10780556499958038,
        0.16577495634555817,
        0.06248244643211365
      ],
      [
        -0.11132669448852539,
        0.0119381844997406,
        -0.22096043825149536,
        -0.4626176655292511
      ],
      [
        0.3251988887786865,
        -0.2866874635219574,
        0.11394248157739639,
        -0.2596438527107239
      ],
      [
        0.023361362516880035,
        -0.23847033083438873,
        -0.0039757960475981236,
        -0.3199392557144165
      ],
      [
        -0.1183842122554779,
        0.22366046905517578,
        0.04277924448251724,
        0.03420918062329292
      ],
      [
        -0.17168718576431274,
        -0.43930643796920776,
        -0.17860515415668488,
        -0.10219015181064606
      ]
    ]
  ],
  "biases": [
    [
      -0.2427680492401123,
      -0.2672174274921417,
      -0.004117055796086788,
      -0.09298346936702728,
      -0.18690861761569977,
      0.0819409191608429,
      0.24481584131717682,
      -0.013617496937513351,
      0.017167111858725548,
      -0.10939297080039978,
      -0.13758818805217743,
      0.3947305977344513,
      -0.2512822151184082,
      -0.032244931906461716,
      -0.08942802995443344,
      -0.02197832614183426
    ],
    [
      0.2958498001098633,
      0.11390478163957596,
      0.0632924735546112,
      -0.11637267470359802
    ]
  ],
  "history_length": 1,
  "base_obs_dim": 9
}
