{
  "weights": [
    [
      [
        0.5490515828132629,
        -0.295204222202301,
        -0.043450288474559784,
        -0.03920384496450424,
        0.014519516378641129,
        0.24902594089508057,
        -0.3573286831378937,
        0.262417733669281,
        0.11965419352054596,
        0.21352043747901917,
        -0.03818443417549133,
        0.24621067941188812,
        -0.4067598581314087,
        0.14482158422470093,
        -0.12078575789928436,
        0.08638622611761093
      ],
      [
        0.02768072485923767,
        0.099372997879982,
        0.22681128978729248,
        0.04632958024740219,
        -0.3483525812625885,
        0.16171705722808838,
        0.07207771390676498,
        0.2540658712387085,
        -0.26360994577407837,
        0.016979068517684937,
        0.21334335207939148,
        0.011240579187870026,
        -0.06418347358703613,
        0.151140034198761,
        -0.22735285758972168,
        -0.30459681153297424
      ],
      [
        -0.4214079678058624,
        0.09594878554344177,
        0.12120501697063446,
        0.038622573018074036,
        0.11722908914089203,
        -0.29381129145622253,
        0.0035792700946331024,
        -0.08805558830499649,
        0.29969608783721924,
        -0.2420031577348709,
        -0.18829186260700226,
        0.04349128529429436,
        -0.42160820960998535,
        0.009780287742614746,
        0.23842769861221313,
        0.08567008376121521
      ],
      [
        -0.1479107290506363,
        0.3882930278778076,
        0.23949822783470154,
        0.027022622525691986,
        0.06518030166625977,
        0.22335797548294067,
        -0.39418652653694153,
        0.2908609211444855,
        0.26580893993377686,
        -0.10906904935836792,
        0.39306244254112244,
        0.009021714329719543,
        0.10274700820446014,
        -0.29049918055534363,
        -0.04049593210220337,
        0.1744081676006317
      ],
      [
        0.1425212174654007,
        0.05110940337181091,
        0.059718117117881775,
        0.36127203702926636,
        0.002483949065208435,
        0.05797325074672699,
        -0.40710169076919556,
        0.12662780284881592,
        -0.0531080961227417,
        0.34344345331192017,
        0.12313878536224365,
        0.06117301806807518,
        -0.3636211156845093,
        -0.30195730924606323,
        -0.0610886886715889,
        -0.1146133616566658
      ],
      [
        -0.10631094872951508,
        -0.17351001501083374,
        -0.2854962944984436,
        0.17402400076389313,
        0.024448543787002563,
        0.316012978553772,
        -0.1893271803855896,
        0.5838752388954163,
        -0.11047729104757309,
        0.23697441816329956,
        0.41040945053100586,
        0.22274811565876007,
        -0.347415953874588,
        0.1697368025779724,
        0.39548879861831665,
        0.05443025007843971
      ],
      [
        0.1327301263809204,
        -0.11044447124004364,
        -0.014291107654571533,
        -0.09561283141374588,
        -0.25931423902511597,
        -0.13927780091762543,
        -0.08888215571641922,
        -0.13384515047073364,
        -0.328760027885437,
        -0.1426021158695221,
        0.27717387676239014,
        0.2501135468482971,
        0.4952442944049835,
        -0.1542241871356964,
        0.10839813202619553,
        0.11205808073282242
      ],
      [
        -0.12201154977083206,
        -0.07874763011932373,
        0.22720706462860107,
        0.14626798033714294,
        0.2910732626914978,
        -0.35542771220207214,
        0.2844843864440918,
        -0.1698031723499298,
        -0.32872477173805237,
        0.14538609981536865,
        0.06534887850284576,
        0.33760982751846313,
        -0.21258486807346344,
        0.22042754292488098,
        -0.18258845806121826,
        -0.009460661560297012
      ],
      [
        -0.3691514730453491,
        0.1449153572320938,
        -0.2859222888946533,
        0.21765965223312378,
        0.00162409245967865,
        -0.05416387692093849,
        -0.2074010819196701,
        -0.19410768151283264,
        -0.2651934027671814,
        0.01187179982662201,
        -0.2798510491847992,
        -0.12212324887514114,
        -0.2288580685853958,
        -0.17785675823688507,
        0.059985168278217316,
        0.1530584692955017
      ]
    ],
    [
      [
        0.09214335680007935,
        -0.16775670647621155,
        -0.18986858427524567,
        -0.1125251054763794
      ],
      [
        -0.23432761430740356,
        -0.055455416440963745,
        0.21564052999019623,
        0.1172228530049324
      ],
      [
        0.14450350403785706,
        -0.10304869711399078,
        -0.21382343769073486,
        0.10231761634349823
      ],
      [
        -0.21543364226818085,
        0.24242687225341797,
        -0.07375973463058472,
        0.1905522346496582
      ],
      [
        0.10729345679283142,
        -0.08937934041023254,
        0.10981602221727371,
        0.1260131448507309
      ],
      [
        0.10719051212072372,
        0.009891163557767868,
        0.0908856987953186,
        0.040490008890628815
      ],
      [
        0.24929247796535492,
        0.0554375983774662,
        -0.07185540348291397,
        -0.2479339838027954
      ],
      [
        -0.02599610947072506,
        0.05661652982234955,
        0.3255302309989929,
        -0.21883904933929443
      ],
      [
        -0.5144187211990356,
        -0.19817441701889038,
        -0.04821345955133438,
        -0.29954391717910767
      ],
      [
        0.4262787699699402,
        -0.6837269067764282,
        -0.42521393299102783,
        -0.1078609824180603
      ],
      [
        0.06823259592056274,
        0.2294440120458603,
        -0.041593123227357864,
        0.16235655546188354
      ],
      [
        -0.011494971811771393,
        -0.29926440119743347,
        -0.022518914192914963,
        -0.22039605677127838
      ],
      [
        -0.4947481155395508,
        -0.23349888622760773,
        0.018215224146842957,
        0.015226262621581554
      ],
      [
        0.045423272997140884,
        -0.12014596164226532,
        0.26955917477607727,
        0.11826317012310028
      ],
      [
        0.16646084189414978,
        0.3810698688030243,
        0.18600520491600037,
        -0.17879565060138702
      ],
      [
        0.0073624225333333015,
        -0.1088702380657196,
        0.011561661958694458,
        0.22213557362556458
      ]
    ]
  ],
  "biases": [
    [
      0.03301374614238739,
      -0.27059414982795715,
      -0.04122152924537659,
      -0.2972695231437683,
      -0.17172211408615112,
      0.02901274710893631,
      -0.015028160065412521,
      -0.03555908054113388,
      0.34848752617836,
      0.33500292897224426,
      -0.493389368057251,
      -0.20966559648513794,
      0.030470460653305054,
      0.20973104238510132,
      -0.1692829579114914,
      0.3494381010532379
    ],
    [
      0.07592765986919403,
      -0.00639401376247406,
      -0.09672894328832626,
      0.11527145653963089
    ]
  ],
  "history_length": 1,
  "base_obs_dim": 9
}
